digraph Tree {
node [shape=box] ;
0 [label="chest pain type <= 3.5\ngini = 0.4945\nsamples = 134\nvalue = [74, 60]\nclass = 1"] ;
1 [label="age <= 56.0\ngini = 0.3512\nsamples = 66\nvalue = [51, 15]\nclass = 1"] ;
0 -> 1 [labeldistance=2.5, labelangle=45, headlabel="True"] ;
2 [label="resting blood pressure <= 139.0\ngini = 0.149\nsamples = 37\nvalue = [34, 3]\nclass = 1"] ;
1 -> 2 ;
3 [label="age <= 48.5\ngini = 0.0689\nsamples = 28\nvalue = [27, 1]\nclass = 1"] ;
2 -> 3 ;
4 [label="gini = 0.0\nsamples = 15\nvalue = [15, 0]\nclass = 1"] ;
3 -> 4 ;
5 [label="age <= 49.5\ngini = 0.142\nsamples = 13\nvalue = [12, 1]\nclass = 1"] ;
3 -> 5 ;
6 [label="resting blood pressure <= 125.0\ngini = 0.4444\nsamples = 3\nvalue = [2, 1]\nclass = 1"] ;
5 -> 6 ;
7 [label="gini = 0.0\nsamples = 1\nvalue = [0, 1]\nclass = 2"] ;
6 -> 7 ;
8 [label="gini = 0.0\nsamples = 2\nvalue = [2, 0]\nclass = 1"] ;
6 -> 8 ;
9 [label="gini = 0.0\nsamples = 10\nvalue = [10, 0]\nclass = 1"] ;
5 -> 9 ;
10 [label="age <= 51.0\ngini = 0.3457\nsamples = 9\nvalue = [7, 2]\nclass = 1"] ;
2 -> 10 ;
11 [label="age <= 45.0\ngini = 0.48\nsamples = 5\nvalue = [3, 2]\nclass = 1"] ;
10 -> 11 ;
12 [label="gini = 0.0\nsamples = 3\nvalue = [3, 0]\nclass = 1"] ;
11 -> 12 ;
13 [label="gini = 0.0\nsamples = 2\nvalue = [0, 2]\nclass = 2"] ;
11 -> 13 ;
14 [label="gini = 0.0\nsamples = 4\nvalue = [4, 0]\nclass = 1"] ;
10 -> 14 ;
15 [label="sex <= 0.5\ngini = 0.4851\nsamples = 29\nvalue = [17, 12]\nclass = 1"] ;
1 -> 15 ;
16 [label="age <= 62.5\ngini = 0.1528\nsamples = 12\nvalue = [11, 1]\nclass = 1"] ;
15 -> 16 ;
17 [label="age <= 61.0\ngini = 0.375\nsamples = 4\nvalue = [3, 1]\nclass = 1"] ;
16 -> 17 ;
18 [label="gini = 0.0\nsamples = 3\nvalue = [3, 0]\nclass = 1"] ;
17 -> 18 ;
19 [label="gini = 0.0\nsamples = 1\nvalue = [0, 1]\nclass = 2"] ;
17 -> 19 ;
20 [label="gini = 0.0\nsamples = 8\nvalue = [8, 0]\nclass = 1"] ;
16 -> 20 ;
21 [label="resting blood pressure <= 127.0\ngini = 0.4567\nsamples = 17\nvalue = [6, 11]\nclass = 2"] ;
15 -> 21 ;
22 [label="gini = 0.0\nsamples = 4\nvalue = [0, 4]\nclass = 2"] ;
21 -> 22 ;
23 [label="chest pain type <= 2.5\ngini = 0.497\nsamples = 13\nvalue = [6, 7]\nclass = 2"] ;
21 -> 23 ;
24 [label="resting blood pressure <= 165.0\ngini = 0.4688\nsamples = 8\nvalue = [5, 3]\nclass = 1"] ;
23 -> 24 ;
25 [label="age <= 64.0\ngini = 0.4082\nsamples = 7\nvalue = [5, 2]\nclass = 1"] ;
24 -> 25 ;
26 [label="gini = 0.0\nsamples = 3\nvalue = [3, 0]\nclass = 1"] ;
25 -> 26 ;
27 [label="age <= 67.5\ngini = 0.5\nsamples = 4\nvalue = [2, 2]\nclass = 1"] ;
25 -> 27 ;
28 [label="gini = 0.0\nsamples = 2\nvalue = [0, 2]\nclass = 2"] ;
27 -> 28 ;
29 [label="gini = 0.0\nsamples = 2\nvalue = [2, 0]\nclass = 1"] ;
27 -> 29 ;
30 [label="gini = 0.0\nsamples = 1\nvalue = [0, 1]\nclass = 2"] ;
24 -> 30 ;
31 [label="age <= 59.0\ngini = 0.32\nsamples = 5\nvalue = [1, 4]\nclass = 2"] ;
23 -> 31 ;
32 [label="resting blood pressure <= 136.0\ngini = 0.5\nsamples = 2\nvalue = [1, 1]\nclass = 1"] ;
31 -> 32 ;
33 [label="gini = 0.0\nsamples = 1\nvalue = [0, 1]\nclass = 2"] ;
32 -> 33 ;
34 [label="gini = 0.0\nsamples = 1\nvalue = [1, 0]\nclass = 1"] ;
32 -> 34 ;
35 [label="gini = 0.0\nsamples = 3\nvalue = [0, 3]\nclass = 2"] ;
31 -> 35 ;
36 [label="resting blood pressure <= 142.0\ngini = 0.4477\nsamples = 68\nvalue = [23, 45]\nclass = 2"] ;
0 -> 36 [labeldistance=2.5, labelangle=-45, headlabel="False"] ;
37 [label="sex <= 0.5\ngini = 0.4815\nsamples = 52\nvalue = [21, 31]\nclass = 2"] ;
36 -> 37 ;
38 [label="age <= 44.5\ngini = 0.3457\nsamples = 9\nvalue = [7, 2]\nclass = 1"] ;
37 -> 38 ;
39 [label="gini = 0.0\nsamples = 1\nvalue = [0, 1]\nclass = 2"] ;
38 -> 39 ;
40 [label="resting blood pressure <= 134.0\ngini = 0.2188\nsamples = 8\nvalue = [7, 1]\nclass = 1"] ;
38 -> 40 ;
41 [label="gini = 0.0\nsamples = 5\nvalue = [5, 0]\nclass = 1"] ;
40 -> 41 ;
42 [label="age <= 54.0\ngini = 0.4444\nsamples = 3\nvalue = [2, 1]\nclass = 1"] ;
40 -> 42 ;
43 [label="gini = 0.0\nsamples = 1\nvalue = [1, 0]\nclass = 1"] ;
42 -> 43 ;
44 [label="resting blood pressure <= 139.0\ngini = 0.5\nsamples = 2\nvalue = [1, 1]\nclass = 1"] ;
42 -> 44 ;
45 [label="gini = 0.0\nsamples = 1\nvalue = [0, 1]\nclass = 2"] ;
44 -> 45 ;
46 [label="gini = 0.0\nsamples = 1\nvalue = [1, 0]\nclass = 1"] ;
44 -> 46 ;
47 [label="resting blood pressure <= 109.0\ngini = 0.4392\nsamples = 43\nvalue = [14, 29]\nclass = 2"] ;
37 -> 47 ;
48 [label="gini = 0.0\nsamples = 2\nvalue = [2, 0]\nclass = 1"] ;
47 -> 48 ;
49 [label="resting blood pressure <= 131.0\ngini = 0.414\nsamples = 41\nvalue = [12, 29]\nclass = 2"] ;
47 -> 49 ;
50 [label="age <= 63.0\ngini = 0.3282\nsamples = 29\nvalue = [6, 23]\nclass = 2"] ;
49 -> 50 ;
51 [label="age <= 50.0\ngini = 0.2778\nsamples = 24\nvalue = [4, 20]\nclass = 2"] ;
50 -> 51 ;
52 [label="resting blood pressure <= 111.0\ngini = 0.4444\nsamples = 9\nvalue = [3, 6]\nclass = 2"] ;
51 -> 52 ;
53 [label="gini = 0.0\nsamples = 3\nvalue = [0, 3]\nclass = 2"] ;
52 -> 53 ;
54 [label="age <= 43.5\ngini = 0.5\nsamples = 6\nvalue = [3, 3]\nclass = 1"] ;
52 -> 54 ;
55 [label="gini = 0.0\nsamples = 1\nvalue = [1, 0]\nclass = 1"] ;
54 -> 55 ;
56 [label="age <= 46.5\ngini = 0.48\nsamples = 5\nvalue = [2, 3]\nclass = 2"] ;
54 -> 56 ;
57 [label="gini = 0.0\nsamples = 2\nvalue = [0, 2]\nclass = 2"] ;
56 -> 57 ;
58 [label="resting blood pressure <= 123.0\ngini = 0.4444\nsamples = 3\nvalue = [2, 1]\nclass = 1"] ;
56 -> 58 ;
59 [label="gini = 0.0\nsamples = 2\nvalue = [2, 0]\nclass = 1"] ;
58 -> 59 ;
60 [label="gini = 0.0\nsamples = 1\nvalue = [0, 1]\nclass = 2"] ;
58 -> 60 ;
61 [label="resting blood pressure <= 111.0\ngini = 0.1244\nsamples = 15\nvalue = [1, 14]\nclass = 2"] ;
51 -> 61 ;
62 [label="age <= 55.5\ngini = 0.375\nsamples = 4\nvalue = [1, 3]\nclass = 2"] ;
61 -> 62 ;
63 [label="gini = 0.0\nsamples = 2\nvalue = [0, 2]\nclass = 2"] ;
62 -> 63 ;
64 [label="age <= 58.0\ngini = 0.5\nsamples = 2\nvalue = [1, 1]\nclass = 1"] ;
62 -> 64 ;
65 [label="gini = 0.0\nsamples = 1\nvalue = [1, 0]\nclass = 1"] ;
64 -> 65 ;
66 [label="gini = 0.0\nsamples = 1\nvalue = [0, 1]\nclass = 2"] ;
64 -> 66 ;
67 [label="gini = 0.0\nsamples = 11\nvalue = [0, 11]\nclass = 2"] ;
61 -> 67 ;
68 [label="age <= 66.0\ngini = 0.48\nsamples = 5\nvalue = [2, 3]\nclass = 2"] ;
50 -> 68 ;
69 [label="resting blood pressure <= 115.0\ngini = 0.4444\nsamples = 3\nvalue = [2, 1]\nclass = 1"] ;
68 -> 69 ;
70 [label="gini = 0.0\nsamples = 1\nvalue = [0, 1]\nclass = 2"] ;
69 -> 70 ;
71 [label="gini = 0.0\nsamples = 2\nvalue = [2, 0]\nclass = 1"] ;
69 -> 71 ;
72 [label="gini = 0.0\nsamples = 2\nvalue = [0, 2]\nclass = 2"] ;
68 -> 72 ;
73 [label="age <= 60.0\ngini = 0.5\nsamples = 12\nvalue = [6, 6]\nclass = 1"] ;
49 -> 73 ;
74 [label="age <= 56.5\ngini = 0.4444\nsamples = 9\nvalue = [6, 3]\nclass = 1"] ;
73 -> 74 ;
75 [label="age <= 55.0\ngini = 0.5\nsamples = 4\nvalue = [2, 2]\nclass = 1"] ;
74 -> 75 ;
76 [label="age <= 52.5\ngini = 0.4444\nsamples = 3\nvalue = [2, 1]\nclass = 1"] ;
75 -> 76 ;
77 [label="gini = 0.5\nsamples = 2\nvalue = [1, 1]\nclass = 1"] ;
76 -> 77 ;
78 [label="gini = 0.0\nsamples = 1\nvalue = [1, 0]\nclass = 1"] ;
76 -> 78 ;
79 [label="gini = 0.0\nsamples = 1\nvalue = [0, 1]\nclass = 2"] ;
75 -> 79 ;
80 [label="resting blood pressure <= 139.0\ngini = 0.32\nsamples = 5\nvalue = [4, 1]\nclass = 1"] ;
74 -> 80 ;
81 [label="gini = 0.0\nsamples = 3\nvalue = [3, 0]\nclass = 1"] ;
80 -> 81 ;
82 [label="age <= 58.0\ngini = 0.5\nsamples = 2\nvalue = [1, 1]\nclass = 1"] ;
80 -> 82 ;
83 [label="gini = 0.0\nsamples = 1\nvalue = [1, 0]\nclass = 1"] ;
82 -> 83 ;
84 [label="gini = 0.0\nsamples = 1\nvalue = [0, 1]\nclass = 2"] ;
82 -> 84 ;
85 [label="gini = 0.0\nsamples = 3\nvalue = [0, 3]\nclass = 2"] ;
73 -> 85 ;
86 [label="age <= 46.5\ngini = 0.2188\nsamples = 16\nvalue = [2, 14]\nclass = 2"] ;
36 -> 86 ;
87 [label="gini = 0.0\nsamples = 1\nvalue = [1, 0]\nclass = 1"] ;
86 -> 87 ;
88 [label="age <= 65.5\ngini = 0.1244\nsamples = 15\nvalue = [1, 14]\nclass = 2"] ;
86 -> 88 ;
89 [label="gini = 0.0\nsamples = 13\nvalue = [0, 13]\nclass = 2"] ;
88 -> 89 ;
90 [label="sex <= 0.5\ngini = 0.5\nsamples = 2\nvalue = [1, 1]\nclass = 1"] ;
88 -> 90 ;
91 [label="gini = 0.0\nsamples = 1\nvalue = [0, 1]\nclass = 2"] ;
90 -> 91 ;
92 [label="gini = 0.0\nsamples = 1\nvalue = [1, 0]\nclass = 1"] ;
90 -> 92 ;
}