digraph Tree {
node [shape=box] ;
0 [label="chest pain type <= 3.5\ngini = 0.4934\nsamples = 269\nvalue = [150, 119]"] ;
1 [label="sex <= 0.5\ngini = 0.3267\nsamples = 141\nvalue = [112, 29]"] ;
0 -> 1 [labeldistance=2.5, labelangle=45, headlabel="True"] ;
2 [label="age <= 57.0\ngini = 0.074\nsamples = 52\nvalue = [50, 2]"] ;
1 -> 2 ;
3 [label="gini = 0.0\nsamples = 30\nvalue = [30, 0]"] ;
2 -> 3 ;
4 [label="age <= 62.5\ngini = 0.1653\nsamples = 22\nvalue = [20, 2]"] ;
2 -> 4 ;
5 [label="age <= 61.0\ngini = 0.4082\nsamples = 7\nvalue = [5, 2]"] ;
4 -> 5 ;
6 [label="chest pain type <= 2.5\ngini = 0.2778\nsamples = 6\nvalue = [5, 1]"] ;
5 -> 6 ;
7 [label="resting blood pressure <= 143.0\ngini = 0.4444\nsamples = 3\nvalue = [2, 1]"] ;
6 -> 7 ;
8 [label="gini = 0.0\nsamples = 1\nvalue = [0, 1]"] ;
7 -> 8 ;
9 [label="gini = 0.0\nsamples = 2\nvalue = [2, 0]"] ;
7 -> 9 ;
10 [label="gini = 0.0\nsamples = 3\nvalue = [3, 0]"] ;
6 -> 10 ;
11 [label="gini = 0.0\nsamples = 1\nvalue = [0, 1]"] ;
5 -> 11 ;
12 [label="gini = 0.0\nsamples = 15\nvalue = [15, 0]"] ;
4 -> 12 ;
13 [label="age <= 56.5\ngini = 0.4227\nsamples = 89\nvalue = [62, 27]"] ;
1 -> 13 ;
14 [label="resting blood pressure <= 182.0\ngini = 0.2698\nsamples = 56\nvalue = [47, 9]"] ;
13 -> 14 ;
15 [label="age <= 45.5\ngini = 0.2486\nsamples = 55\nvalue = [47, 8]"] ;
14 -> 15 ;
16 [label="chest pain type <= 1.5\ngini = 0.0868\nsamples = 22\nvalue = [21, 1]"] ;
15 -> 16 ;
17 [label="age <= 39.0\ngini = 0.375\nsamples = 4\nvalue = [3, 1]"] ;
16 -> 17 ;
18 [label="resting blood pressure <= 119.0\ngini = 0.5\nsamples = 2\nvalue = [1, 1]"] ;
17 -> 18 ;
19 [label="gini = 0.0\nsamples = 1\nvalue = [1, 0]"] ;
18 -> 19 ;
20 [label="gini = 0.0\nsamples = 1\nvalue = [0, 1]"] ;
18 -> 20 ;
21 [label="gini = 0.0\nsamples = 2\nvalue = [2, 0]"] ;
17 -> 21 ;
22 [label="gini = 0.0\nsamples = 18\nvalue = [18, 0]"] ;
16 -> 22 ;
23 [label="age <= 50.5\ngini = 0.3343\nsamples = 33\nvalue = [26, 7]"] ;
15 -> 23 ;
24 [label="resting blood pressure <= 122.0\ngini = 0.5\nsamples = 12\nvalue = [6, 6]"] ;
23 -> 24 ;
25 [label="resting blood pressure <= 104.5\ngini = 0.32\nsamples = 5\nvalue = [1, 4]"] ;
24 -> 25 ;
26 [label="gini = 0.0\nsamples = 1\nvalue = [1, 0]"] ;
25 -> 26 ;
27 [label="gini = 0.0\nsamples = 4\nvalue = [0, 4]"] ;
25 -> 27 ;
28 [label="resting blood pressure <= 139.0\ngini = 0.4082\nsamples = 7\nvalue = [5, 2]"] ;
24 -> 28 ;
29 [label="gini = 0.0\nsamples = 5\nvalue = [5, 0]"] ;
28 -> 29 ;
30 [label="gini = 0.0\nsamples = 2\nvalue = [0, 2]"] ;
28 -> 30 ;
31 [label="age <= 55.5\ngini = 0.0907\nsamples = 21\nvalue = [20, 1]"] ;
23 -> 31 ;
32 [label="gini = 0.0\nsamples = 18\nvalue = [18, 0]"] ;
31 -> 32 ;
33 [label="chest pain type <= 2.5\ngini = 0.4444\nsamples = 3\nvalue = [2, 1]"] ;
31 -> 33 ;
34 [label="gini = 0.0\nsamples = 2\nvalue = [2, 0]"] ;
33 -> 34 ;
35 [label="gini = 0.0\nsamples = 1\nvalue = [0, 1]"] ;
33 -> 35 ;
36 [label="gini = 0.0\nsamples = 1\nvalue = [0, 1]"] ;
14 -> 36 ;
37 [label="resting blood pressure <= 111.0\ngini = 0.4959\nsamples = 33\nvalue = [15, 18]"] ;
13 -> 37 ;
38 [label="gini = 0.0\nsamples = 2\nvalue = [2, 0]"] ;
37 -> 38 ;
39 [label="resting blood pressure <= 142.5\ngini = 0.487\nsamples = 31\nvalue = [13, 18]"] ;
37 -> 39 ;
40 [label="resting blood pressure <= 127.0\ngini = 0.4012\nsamples = 18\nvalue = [5, 13]"] ;
39 -> 40 ;
41 [label="age <= 66.0\ngini = 0.2449\nsamples = 7\nvalue = [1, 6]"] ;
40 -> 41 ;
42 [label="gini = 0.0\nsamples = 6\nvalue = [0, 6]"] ;
41 -> 42 ;
43 [label="gini = 0.0\nsamples = 1\nvalue = [1, 0]"] ;
41 -> 43 ;
44 [label="age <= 63.0\ngini = 0.4628\nsamples = 11\nvalue = [4, 7]"] ;
40 -> 44 ;
45 [label="age <= 61.5\ngini = 0.5\nsamples = 8\nvalue = [4, 4]"] ;
44 -> 45 ;
46 [label="resting blood pressure <= 137.0\ngini = 0.4444\nsamples = 6\nvalue = [2, 4]"] ;
45 -> 46 ;
47 [label="gini = 0.0\nsamples = 3\nvalue = [0, 3]"] ;
46 -> 47 ;
48 [label="age <= 59.5\ngini = 0.4444\nsamples = 3\nvalue = [2, 1]"] ;
46 -> 48 ;
49 [label="gini = 0.0\nsamples = 2\nvalue = [2, 0]"] ;
48 -> 49 ;
50 [label="gini = 0.0\nsamples = 1\nvalue = [0, 1]"] ;
48 -> 50 ;
51 [label="gini = 0.0\nsamples = 2\nvalue = [2, 0]"] ;
45 -> 51 ;
52 [label="gini = 0.0\nsamples = 3\nvalue = [0, 3]"] ;
44 -> 52 ;
53 [label="resting blood pressure <= 158.0\ngini = 0.4734\nsamples = 13\nvalue = [8, 5]"] ;
39 -> 53 ;
54 [label="gini = 0.0\nsamples = 6\nvalue = [6, 0]"] ;
53 -> 54 ;
55 [label="chest pain type <= 1.5\ngini = 0.4082\nsamples = 7\nvalue = [2, 5]"] ;
53 -> 55 ;
56 [label="age <= 64.0\ngini = 0.5\nsamples = 4\nvalue = [2, 2]"] ;
55 -> 56 ;
57 [label="resting blood pressure <= 174.0\ngini = 0.4444\nsamples = 3\nvalue = [1, 2]"] ;
56 -> 57 ;
58 [label="gini = 0.0\nsamples = 2\nvalue = [0, 2]"] ;
57 -> 58 ;
59 [label="gini = 0.0\nsamples = 1\nvalue = [1, 0]"] ;
57 -> 59 ;
60 [label="gini = 0.0\nsamples = 1\nvalue = [1, 0]"] ;
56 -> 60 ;
61 [label="gini = 0.0\nsamples = 3\nvalue = [0, 3]"] ;
55 -> 61 ;
62 [label="sex <= 0.5\ngini = 0.4175\nsamples = 128\nvalue = [38, 90]"] ;
0 -> 62 [labeldistance=2.5, labelangle=-45, headlabel="False"] ;
63 [label="resting blood pressure <= 142.5\ngini = 0.4996\nsamples = 35\nvalue = [17, 18]"] ;
62 -> 63 ;
64 [label="resting blood pressure <= 129.0\ngini = 0.4234\nsamples = 23\nvalue = [16, 7]"] ;
63 -> 64 ;
65 [label="age <= 62.5\ngini = 0.1975\nsamples = 9\nvalue = [8, 1]"] ;
64 -> 65 ;
66 [label="gini = 0.0\nsamples = 6\nvalue = [6, 0]"] ;
65 -> 66 ;
67 [label="age <= 65.0\ngini = 0.4444\nsamples = 3\nvalue = [2, 1]"] ;
65 -> 67 ;
68 [label="gini = 0.0\nsamples = 1\nvalue = [0, 1]"] ;
67 -> 68 ;
69 [label="gini = 0.0\nsamples = 2\nvalue = [2, 0]"] ;
67 -> 69 ;
70 [label="age <= 54.5\ngini = 0.4898\nsamples = 14\nvalue = [8, 6]"] ;
64 -> 70 ;
71 [label="resting blood pressure <= 135.0\ngini = 0.375\nsamples = 8\nvalue = [6, 2]"] ;
70 -> 71 ;
72 [label="age <= 46.0\ngini = 0.5\nsamples = 4\nvalue = [2, 2]"] ;
71 -> 72 ;
73 [label="gini = 0.0\nsamples = 1\nvalue = [0, 1]"] ;
72 -> 73 ;
74 [label="age <= 50.0\ngini = 0.4444\nsamples = 3\nvalue = [2, 1]"] ;
72 -> 74 ;
75 [label="gini = 0.0\nsamples = 1\nvalue = [1, 0]"] ;
74 -> 75 ;
76 [label="age <= 52.0\ngini = 0.5\nsamples = 2\nvalue = [1, 1]"] ;
74 -> 76 ;
77 [label="gini = 0.0\nsamples = 1\nvalue = [0, 1]"] ;
76 -> 77 ;
78 [label="gini = 0.0\nsamples = 1\nvalue = [1, 0]"] ;
76 -> 78 ;
79 [label="gini = 0.0\nsamples = 4\nvalue = [4, 0]"] ;
71 -> 79 ;
80 [label="age <= 63.0\ngini = 0.4444\nsamples = 6\nvalue = [2, 4]"] ;
70 -> 80 ;
81 [label="resting blood pressure <= 139.0\ngini = 0.32\nsamples = 5\nvalue = [1, 4]"] ;
80 -> 81 ;
82 [label="gini = 0.0\nsamples = 3\nvalue = [0, 3]"] ;
81 -> 82 ;
83 [label="gini = 0.5\nsamples = 2\nvalue = [1, 1]"] ;
81 -> 83 ;
84 [label="gini = 0.0\nsamples = 1\nvalue = [1, 0]"] ;
80 -> 84 ;
85 [label="resting blood pressure <= 179.0\ngini = 0.1528\nsamples = 12\nvalue = [1, 11]"] ;
63 -> 85 ;
86 [label="gini = 0.0\nsamples = 9\nvalue = [0, 9]"] ;
85 -> 86 ;
87 [label="age <= 60.0\ngini = 0.4444\nsamples = 3\nvalue = [1, 2]"] ;
85 -> 87 ;
88 [label="gini = 0.0\nsamples = 2\nvalue = [0, 2]"] ;
87 -> 88 ;
89 [label="gini = 0.0\nsamples = 1\nvalue = [1, 0]"] ;
87 -> 89 ;
90 [label="resting blood pressure <= 116.0\ngini = 0.3496\nsamples = 93\nvalue = [21, 72]"] ;
62 -> 90 ;
91 [label="resting blood pressure <= 113.5\ngini = 0.455\nsamples = 20\nvalue = [7, 13]"] ;
90 -> 91 ;
92 [label="age <= 57.5\ngini = 0.4012\nsamples = 18\nvalue = [5, 13]"] ;
91 -> 92 ;
93 [label="resting blood pressure <= 109.0\ngini = 0.4734\nsamples = 13\nvalue = [5, 8]"] ;
92 -> 93 ;
94 [label="gini = 0.0\nsamples = 2\nvalue = [2, 0]"] ;
93 -> 94 ;
95 [label="age <= 55.5\ngini = 0.3967\nsamples = 11\nvalue = [3, 8]"] ;
93 -> 95 ;
96 [label="age <= 49.5\ngini = 0.32\nsamples = 10\nvalue = [2, 8]"] ;
95 -> 96 ;
97 [label="age <= 42.0\ngini = 0.4082\nsamples = 7\nvalue = [2, 5]"] ;
96 -> 97 ;
98 [label="gini = 0.0\nsamples = 2\nvalue = [0, 2]"] ;
97 -> 98 ;
99 [label="age <= 43.5\ngini = 0.48\nsamples = 5\nvalue = [2, 3]"] ;
97 -> 99 ;
100 [label="gini = 0.0\nsamples = 1\nvalue = [1, 0]"] ;
99 -> 100 ;
101 [label="resting blood pressure <= 111.0\ngini = 0.375\nsamples = 4\nvalue = [1, 3]"] ;
99 -> 101 ;
102 [label="gini = 0.0\nsamples = 2\nvalue = [0, 2]"] ;
101 -> 102 ;
103 [label="age <= 45.5\ngini = 0.5\nsamples = 2\nvalue = [1, 1]"] ;
101 -> 103 ;
104 [label="gini = 0.0\nsamples = 1\nvalue = [0, 1]"] ;
103 -> 104 ;
105 [label="gini = 0.0\nsamples = 1\nvalue = [1, 0]"] ;
103 -> 105 ;
106 [label="gini = 0.0\nsamples = 3\nvalue = [0, 3]"] ;
96 -> 106 ;
107 [label="gini = 0.0\nsamples = 1\nvalue = [1, 0]"] ;
95 -> 107 ;
108 [label="gini = 0.0\nsamples = 5\nvalue = [0, 5]"] ;
92 -> 108 ;
109 [label="gini = 0.0\nsamples = 2\nvalue = [2, 0]"] ;
91 -> 109 ;
110 [label="resting blood pressure <= 131.0\ngini = 0.31\nsamples = 73\nvalue = [14, 59]"] ;
90 -> 110 ;
111 [label="age <= 63.5\ngini = 0.2024\nsamples = 35\nvalue = [4, 31]"] ;
110 -> 111 ;
112 [label="age <= 50.0\ngini = 0.0713\nsamples = 27\nvalue = [1, 26]"] ;
111 -> 112 ;
113 [label="age <= 47.0\ngini = 0.2188\nsamples = 8\nvalue = [1, 7]"] ;
112 -> 113 ;
114 [label="gini = 0.0\nsamples = 5\nvalue = [0, 5]"] ;
113 -> 114 ;
115 [label="resting blood pressure <= 123.0\ngini = 0.4444\nsamples = 3\nvalue = [1, 2]"] ;
113 -> 115 ;
116 [label="gini = 0.0\nsamples = 1\nvalue = [1, 0]"] ;
115 -> 116 ;
117 [label="gini = 0.0\nsamples = 2\nvalue = [0, 2]"] ;
115 -> 117 ;
118 [label="gini = 0.0\nsamples = 19\nvalue = [0, 19]"] ;
112 -> 118 ;
119 [label="age <= 66.5\ngini = 0.4688\nsamples = 8\nvalue = [3, 5]"] ;
111 -> 119 ;
120 [label="age <= 64.5\ngini = 0.375\nsamples = 4\nvalue = [3, 1]"] ;
119 -> 120 ;
121 [label="resting blood pressure <= 124.0\ngini = 0.5\nsamples = 2\nvalue = [1, 1]"] ;
120 -> 121 ;
122 [label="gini = 0.0\nsamples = 1\nvalue = [0, 1]"] ;
121 -> 122 ;
123 [label="gini = 0.0\nsamples = 1\nvalue = [1, 0]"] ;
121 -> 123 ;
124 [label="gini = 0.0\nsamples = 2\nvalue = [2, 0]"] ;
120 -> 124 ;
125 [label="gini = 0.0\nsamples = 4\nvalue = [0, 4]"] ;
119 -> 125 ;
126 [label="resting blood pressure <= 143.0\ngini = 0.3878\nsamples = 38\nvalue = [10, 28]"] ;
110 -> 126 ;
127 [label="age <= 59.5\ngini = 0.4628\nsamples = 22\nvalue = [8, 14]"] ;
126 -> 127 ;
128 [label="age <= 56.5\ngini = 0.4938\nsamples = 18\nvalue = [8, 10]"] ;
127 -> 128 ;
129 [label="resting blood pressure <= 138.0\ngini = 0.426\nsamples = 13\nvalue = [4, 9]"] ;
128 -> 129 ;
130 [label="gini = 0.0\nsamples = 3\nvalue = [0, 3]"] ;
129 -> 130 ;
131 [label="age <= 43.5\ngini = 0.48\nsamples = 10\nvalue = [4, 6]"] ;
129 -> 131 ;
132 [label="gini = 0.0\nsamples = 1\nvalue = [1, 0]"] ;
131 -> 132 ;
133 [label="age <= 48.5\ngini = 0.4444\nsamples = 9\nvalue = [3, 6]"] ;
131 -> 133 ;
134 [label="gini = 0.0\nsamples = 2\nvalue = [0, 2]"] ;
133 -> 134 ;
135 [label="resting blood pressure <= 141.0\ngini = 0.4898\nsamples = 7\nvalue = [3, 4]"] ;
133 -> 135 ;
136 [label="age <= 54.5\ngini = 0.4444\nsamples = 6\nvalue = [2, 4]"] ;
135 -> 136 ;
137 [label="age <= 53.5\ngini = 0.48\nsamples = 5\nvalue = [2, 3]"] ;
136 -> 137 ;
138 [label="age <= 52.0\ngini = 0.375\nsamples = 4\nvalue = [1, 3]"] ;
137 -> 138 ;
139 [label="gini = 0.4444\nsamples = 3\nvalue = [1, 2]"] ;
138 -> 139 ;
140 [label="gini = 0.0\nsamples = 1\nvalue = [0, 1]"] ;
138 -> 140 ;
141 [label="gini = 0.0\nsamples = 1\nvalue = [1, 0]"] ;
137 -> 141 ;
142 [label="gini = 0.0\nsamples = 1\nvalue = [0, 1]"] ;
136 -> 142 ;
143 [label="gini = 0.0\nsamples = 1\nvalue = [1, 0]"] ;
135 -> 143 ;
144 [label="resting blood pressure <= 139.0\ngini = 0.32\nsamples = 5\nvalue = [4, 1]"] ;
128 -> 144 ;
145 [label="gini = 0.0\nsamples = 3\nvalue = [3, 0]"] ;
144 -> 145 ;
146 [label="age <= 58.0\ngini = 0.5\nsamples = 2\nvalue = [1, 1]"] ;
144 -> 146 ;
147 [label="gini = 0.0\nsamples = 1\nvalue = [1, 0]"] ;
146 -> 147 ;
148 [label="gini = 0.0\nsamples = 1\nvalue = [0, 1]"] ;
146 -> 148 ;
149 [label="gini = 0.0\nsamples = 4\nvalue = [0, 4]"] ;
127 -> 149 ;
150 [label="age <= 46.5\ngini = 0.2188\nsamples = 16\nvalue = [2, 14]"] ;
126 -> 150 ;
151 [label="resting blood pressure <= 151.0\ngini = 0.5\nsamples = 2\nvalue = [1, 1]"] ;
150 -> 151 ;
152 [label="gini = 0.0\nsamples = 1\nvalue = [1, 0]"] ;
151 -> 152 ;
153 [label="gini = 0.0\nsamples = 1\nvalue = [0, 1]"] ;
151 -> 153 ;
154 [label="age <= 65.0\ngini = 0.1327\nsamples = 14\nvalue = [1, 13]"] ;
150 -> 154 ;
155 [label="gini = 0.0\nsamples = 11\nvalue = [0, 11]"] ;
154 -> 155 ;
156 [label="age <= 66.5\ngini = 0.4444\nsamples = 3\nvalue = [1, 2]"] ;
154 -> 156 ;
157 [label="gini = 0.0\nsamples = 1\nvalue = [1, 0]"] ;
156 -> 157 ;
158 [label="gini = 0.0\nsamples = 2\nvalue = [0, 2]"] ;
156 -> 158 ;
}