digraph Tree {
node [shape=box] ;
0 [label="thal <= 4.5\ngini = 0.4934\nsamples = 269\nvalue = [150, 119]\nclass = 1"] ;
1 [label="chest pain type <= 3.5\ngini = 0.334\nsamples = 151\nvalue = [119, 32]\nclass = 1"] ;
0 -> 1 [labeldistance=2.5, labelangle=45, headlabel="True"] ;
2 [label="oldpeak <= 2.5\ngini = 0.1784\nsamples = 101\nvalue = [91, 10]\nclass = 1"] ;
1 -> 2 ;
3 [label="serum cholestoral <= 272.0\ngini = 0.1352\nsamples = 96\nvalue = [89, 7]\nclass = 1"] ;
2 -> 3 ;
4 [label="serum cholestoral <= 154.5\ngini = 0.0548\nsamples = 71\nvalue = [69, 2]\nclass = 1"] ;
3 -> 4 ;
5 [label="slope peak <= 1.5\ngini = 0.5\nsamples = 2\nvalue = [1, 1]\nclass = 1"] ;
4 -> 5 ;
6 [label="gini = 0.0\nsamples = 1\nvalue = [0, 1]\nclass = 2"] ;
5 -> 6 ;
7 [label="gini = 0.0\nsamples = 1\nvalue = [1, 0]\nclass = 1"] ;
5 -> 7 ;
8 [label="resting blood pressure <= 109.0\ngini = 0.0286\nsamples = 69\nvalue = [68, 1]\nclass = 1"] ;
4 -> 8 ;
9 [label="max heartrate <= 159.5\ngini = 0.2778\nsamples = 6\nvalue = [5, 1]\nclass = 1"] ;
8 -> 9 ;
10 [label="max heartrate <= 147.5\ngini = 0.5\nsamples = 2\nvalue = [1, 1]\nclass = 1"] ;
9 -> 10 ;
11 [label="gini = 0.0\nsamples = 1\nvalue = [1, 0]\nclass = 1"] ;
10 -> 11 ;
12 [label="gini = 0.0\nsamples = 1\nvalue = [0, 1]\nclass = 2"] ;
10 -> 12 ;
13 [label="gini = 0.0\nsamples = 4\nvalue = [4, 0]\nclass = 1"] ;
9 -> 13 ;
14 [label="gini = 0.0\nsamples = 63\nvalue = [63, 0]\nclass = 1"] ;
8 -> 14 ;
15 [label="age <= 57.0\ngini = 0.32\nsamples = 25\nvalue = [20, 5]\nclass = 1"] ;
3 -> 15 ;
16 [label="gini = 0.0\nsamples = 13\nvalue = [13, 0]\nclass = 1"] ;
15 -> 16 ;
17 [label="sex <= 0.5\ngini = 0.4861\nsamples = 12\nvalue = [7, 5]\nclass = 1"] ;
15 -> 17 ;
18 [label="number of vessels <= 1.5\ngini = 0.2188\nsamples = 8\nvalue = [7, 1]\nclass = 1"] ;
17 -> 18 ;
19 [label="gini = 0.0\nsamples = 6\nvalue = [6, 0]\nclass = 1"] ;
18 -> 19 ;
20 [label="resting electrocardio <= 1.0\ngini = 0.5\nsamples = 2\nvalue = [1, 1]\nclass = 1"] ;
18 -> 20 ;
21 [label="gini = 0.0\nsamples = 1\nvalue = [1, 0]\nclass = 1"] ;
20 -> 21 ;
22 [label="gini = 0.0\nsamples = 1\nvalue = [0, 1]\nclass = 2"] ;
20 -> 22 ;
23 [label="gini = 0.0\nsamples = 4\nvalue = [0, 4]\nclass = 2"] ;
17 -> 23 ;
24 [label="slope peak <= 2.5\ngini = 0.48\nsamples = 5\nvalue = [2, 3]\nclass = 2"] ;
2 -> 24 ;
25 [label="gini = 0.0\nsamples = 3\nvalue = [0, 3]\nclass = 2"] ;
24 -> 25 ;
26 [label="gini = 0.0\nsamples = 2\nvalue = [2, 0]\nclass = 1"] ;
24 -> 26 ;
27 [label="number of vessels <= 0.5\ngini = 0.4928\nsamples = 50\nvalue = [28, 22]\nclass = 1"] ;
1 -> 27 ;
28 [label="resting blood pressure <= 145.0\ngini = 0.3122\nsamples = 31\nvalue = [25, 6]\nclass = 1"] ;
27 -> 28 ;
29 [label="max heartrate <= 96.5\ngini = 0.1472\nsamples = 25\nvalue = [23, 2]\nclass = 1"] ;
28 -> 29 ;
30 [label="gini = 0.0\nsamples = 1\nvalue = [0, 1]\nclass = 2"] ;
29 -> 30 ;
31 [label="serum cholestoral <= 316.5\ngini = 0.0799\nsamples = 24\nvalue = [23, 1]\nclass = 1"] ;
29 -> 31 ;
32 [label="gini = 0.0\nsamples = 21\nvalue = [21, 0]\nclass = 1"] ;
31 -> 32 ;
33 [label="oldpeak <= 0.3\ngini = 0.4444\nsamples = 3\nvalue = [2, 1]\nclass = 1"] ;
31 -> 33 ;
34 [label="gini = 0.0\nsamples = 1\nvalue = [0, 1]\nclass = 2"] ;
33 -> 34 ;
35 [label="gini = 0.0\nsamples = 2\nvalue = [2, 0]\nclass = 1"] ;
33 -> 35 ;
36 [label="slope peak <= 1.5\ngini = 0.4444\nsamples = 6\nvalue = [2, 4]\nclass = 2"] ;
28 -> 36 ;
37 [label="resting electrocardio <= 1.0\ngini = 0.4444\nsamples = 3\nvalue = [2, 1]\nclass = 1"] ;
36 -> 37 ;
38 [label="gini = 0.0\nsamples = 2\nvalue = [2, 0]\nclass = 1"] ;
37 -> 38 ;
39 [label="gini = 0.0\nsamples = 1\nvalue = [0, 1]\nclass = 2"] ;
37 -> 39 ;
40 [label="gini = 0.0\nsamples = 3\nvalue = [0, 3]\nclass = 2"] ;
36 -> 40 ;
41 [label="sex <= 0.5\ngini = 0.2659\nsamples = 19\nvalue = [3, 16]\nclass = 2"] ;
27 -> 41 ;
42 [label="serum cholestoral <= 298.5\ngini = 0.5\nsamples = 6\nvalue = [3, 3]\nclass = 1"] ;
41 -> 42 ;
43 [label="oldpeak <= 1.05\ngini = 0.375\nsamples = 4\nvalue = [1, 3]\nclass = 2"] ;
42 -> 43 ;
44 [label="gini = 0.0\nsamples = 1\nvalue = [1, 0]\nclass = 1"] ;
43 -> 44 ;
45 [label="gini = 0.0\nsamples = 3\nvalue = [0, 3]\nclass = 2"] ;
43 -> 45 ;
46 [label="gini = 0.0\nsamples = 2\nvalue = [2, 0]\nclass = 1"] ;
42 -> 46 ;
47 [label="gini = 0.0\nsamples = 13\nvalue = [0, 13]\nclass = 2"] ;
41 -> 47 ;
48 [label="number of vessels <= 0.5\ngini = 0.3874\nsamples = 118\nvalue = [31, 87]\nclass = 2"] ;
0 -> 48 [labeldistance=2.5, labelangle=-45, headlabel="False"] ;
49 [label="exercise induced angina <= 0.5\ngini = 0.4984\nsamples = 53\nvalue = [25, 28]\nclass = 2"] ;
48 -> 49 ;
50 [label="age <= 51.0\ngini = 0.4281\nsamples = 29\nvalue = [20, 9]\nclass = 1"] ;
49 -> 50 ;
51 [label="chest pain type <= 3.5\ngini = 0.4861\nsamples = 12\nvalue = [5, 7]\nclass = 2"] ;
50 -> 51 ;
52 [label="age <= 47.0\ngini = 0.32\nsamples = 5\nvalue = [4, 1]\nclass = 1"] ;
51 -> 52 ;
53 [label="gini = 0.0\nsamples = 4\nvalue = [4, 0]\nclass = 1"] ;
52 -> 53 ;
54 [label="gini = 0.0\nsamples = 1\nvalue = [0, 1]\nclass = 2"] ;
52 -> 54 ;
55 [label="resting blood pressure <= 114.0\ngini = 0.2449\nsamples = 7\nvalue = [1, 6]\nclass = 2"] ;
51 -> 55 ;
56 [label="max heartrate <= 159.5\ngini = 0.5\nsamples = 2\nvalue = [1, 1]\nclass = 1"] ;
55 -> 56 ;
57 [label="gini = 0.0\nsamples = 1\nvalue = [0, 1]\nclass = 2"] ;
56 -> 57 ;
58 [label="gini = 0.0\nsamples = 1\nvalue = [1, 0]\nclass = 1"] ;
56 -> 58 ;
59 [label="gini = 0.0\nsamples = 5\nvalue = [0, 5]\nclass = 2"] ;
55 -> 59 ;
60 [label="oldpeak <= 0.35\ngini = 0.2076\nsamples = 17\nvalue = [15, 2]\nclass = 1"] ;
50 -> 60 ;
61 [label="age <= 55.5\ngini = 0.48\nsamples = 5\nvalue = [3, 2]\nclass = 1"] ;
60 -> 61 ;
62 [label="gini = 0.0\nsamples = 2\nvalue = [2, 0]\nclass = 1"] ;
61 -> 62 ;
63 [label="sex <= 0.5\ngini = 0.4444\nsamples = 3\nvalue = [1, 2]\nclass = 2"] ;
61 -> 63 ;
64 [label="gini = 0.0\nsamples = 1\nvalue = [1, 0]\nclass = 1"] ;
63 -> 64 ;
65 [label="gini = 0.0\nsamples = 2\nvalue = [0, 2]\nclass = 2"] ;
63 -> 65 ;
66 [label="gini = 0.0\nsamples = 12\nvalue = [12, 0]\nclass = 1"] ;
60 -> 66 ;
67 [label="oldpeak <= 1.55\ngini = 0.3299\nsamples = 24\nvalue = [5, 19]\nclass = 2"] ;
49 -> 67 ;
68 [label="serum cholestoral <= 255.0\ngini = 0.5\nsamples = 10\nvalue = [5, 5]\nclass = 1"] ;
67 -> 68 ;
69 [label="resting blood pressure <= 143.0\ngini = 0.2778\nsamples = 6\nvalue = [5, 1]\nclass = 1"] ;
68 -> 69 ;
70 [label="gini = 0.0\nsamples = 5\nvalue = [5, 0]\nclass = 1"] ;
69 -> 70 ;
71 [label="gini = 0.0\nsamples = 1\nvalue = [0, 1]\nclass = 2"] ;
69 -> 71 ;
72 [label="gini = 0.0\nsamples = 4\nvalue = [0, 4]\nclass = 2"] ;
68 -> 72 ;
73 [label="gini = 0.0\nsamples = 14\nvalue = [0, 14]\nclass = 2"] ;
67 -> 73 ;
74 [label="resting blood pressure <= 109.0\ngini = 0.1676\nsamples = 65\nvalue = [6, 59]\nclass = 2"] ;
48 -> 74 ;
75 [label="serum cholestoral <= 233.5\ngini = 0.4444\nsamples = 3\nvalue = [2, 1]\nclass = 1"] ;
74 -> 75 ;
76 [label="gini = 0.0\nsamples = 2\nvalue = [2, 0]\nclass = 1"] ;
75 -> 76 ;
77 [label="gini = 0.0\nsamples = 1\nvalue = [0, 1]\nclass = 2"] ;
75 -> 77 ;
78 [label="serum cholestoral <= 145.0\ngini = 0.1207\nsamples = 62\nvalue = [4, 58]\nclass = 2"] ;
74 -> 78 ;
79 [label="gini = 0.0\nsamples = 1\nvalue = [1, 0]\nclass = 1"] ;
78 -> 79 ;
80 [label="age <= 61.5\ngini = 0.0935\nsamples = 61\nvalue = [3, 58]\nclass = 2"] ;
78 -> 80 ;
81 [label="gini = 0.0\nsamples = 41\nvalue = [0, 41]\nclass = 2"] ;
80 -> 81 ;
82 [label="resting electrocardio <= 1.0\ngini = 0.255\nsamples = 20\nvalue = [3, 17]\nclass = 2"] ;
80 -> 82 ;
83 [label="serum cholestoral <= 273.0\ngini = 0.4444\nsamples = 9\nvalue = [3, 6]\nclass = 2"] ;
82 -> 83 ;
84 [label="age <= 65.0\ngini = 0.375\nsamples = 8\nvalue = [2, 6]\nclass = 2"] ;
83 -> 84 ;
85 [label="max heartrate <= 102.0\ngini = 0.5\nsamples = 4\nvalue = [2, 2]\nclass = 1"] ;
84 -> 85 ;
86 [label="gini = 0.0\nsamples = 2\nvalue = [0, 2]\nclass = 2"] ;
85 -> 86 ;
87 [label="gini = 0.0\nsamples = 2\nvalue = [2, 0]\nclass = 1"] ;
85 -> 87 ;
88 [label="gini = 0.0\nsamples = 4\nvalue = [0, 4]\nclass = 2"] ;
84 -> 88 ;
89 [label="gini = 0.0\nsamples = 1\nvalue = [1, 0]\nclass = 1"] ;
83 -> 89 ;
90 [label="gini = 0.0\nsamples = 11\nvalue = [0, 11]\nclass = 2"] ;
82 -> 90 ;
}