digraph Tree {
node [shape=box] ;
0 [label="number of vessels <= 0.5\ngini = 0.4855\nsamples = 135\nvalue = [79, 56]\nclass = 1"] ;
1 [label="max heartrate <= 155.5\ngini = 0.3107\nsamples = 78\nvalue = [63, 15]\nclass = 1"] ;
0 -> 1 [labeldistance=2.5, labelangle=45, headlabel="True"] ;
2 [label="serum cholestoral <= 300.5\ngini = 0.4824\nsamples = 32\nvalue = [19, 13]\nclass = 1"] ;
1 -> 2 ;
3 [label="resting blood pressure <= 145.0\ngini = 0.4362\nsamples = 28\nvalue = [19, 9]\nclass = 1"] ;
2 -> 3 ;
4 [label="sex <= 0.5\ngini = 0.3512\nsamples = 22\nvalue = [17, 5]\nclass = 1"] ;
3 -> 4 ;
5 [label="gini = 0.0\nsamples = 10\nvalue = [10, 0]\nclass = 1"] ;
4 -> 5 ;
6 [label="age <= 59.0\ngini = 0.4861\nsamples = 12\nvalue = [7, 5]\nclass = 1"] ;
4 -> 6 ;
7 [label="age <= 49.0\ngini = 0.42\nsamples = 10\nvalue = [7, 3]\nclass = 1"] ;
6 -> 7 ;
8 [label="thal <= 5.0\ngini = 0.48\nsamples = 5\nvalue = [2, 3]\nclass = 2"] ;
7 -> 8 ;
9 [label="chest pain type <= 3.5\ngini = 0.4444\nsamples = 3\nvalue = [2, 1]\nclass = 1"] ;
8 -> 9 ;
10 [label="gini = 0.0\nsamples = 1\nvalue = [0, 1]\nclass = 2"] ;
9 -> 10 ;
11 [label="gini = 0.0\nsamples = 2\nvalue = [2, 0]\nclass = 1"] ;
9 -> 11 ;
12 [label="gini = 0.0\nsamples = 2\nvalue = [0, 2]\nclass = 2"] ;
8 -> 12 ;
13 [label="gini = 0.0\nsamples = 5\nvalue = [5, 0]\nclass = 1"] ;
7 -> 13 ;
14 [label="gini = 0.0\nsamples = 2\nvalue = [0, 2]\nclass = 2"] ;
6 -> 14 ;
15 [label="exercise induced angina <= 0.5\ngini = 0.4444\nsamples = 6\nvalue = [2, 4]\nclass = 2"] ;
3 -> 15 ;
16 [label="serum cholestoral <= 271.5\ngini = 0.4444\nsamples = 3\nvalue = [2, 1]\nclass = 1"] ;
15 -> 16 ;
17 [label="gini = 0.0\nsamples = 2\nvalue = [2, 0]\nclass = 1"] ;
16 -> 17 ;
18 [label="gini = 0.0\nsamples = 1\nvalue = [0, 1]\nclass = 2"] ;
16 -> 18 ;
19 [label="gini = 0.0\nsamples = 3\nvalue = [0, 3]\nclass = 2"] ;
15 -> 19 ;
20 [label="gini = 0.0\nsamples = 4\nvalue = [0, 4]\nclass = 2"] ;
2 -> 20 ;
21 [label="serum cholestoral <= 272.5\ngini = 0.0832\nsamples = 46\nvalue = [44, 2]\nclass = 1"] ;
1 -> 21 ;
22 [label="gini = 0.0\nsamples = 35\nvalue = [35, 0]\nclass = 1"] ;
21 -> 22 ;
23 [label="serum cholestoral <= 289.5\ngini = 0.2975\nsamples = 11\nvalue = [9, 2]\nclass = 1"] ;
21 -> 23 ;
24 [label="sex <= 0.5\ngini = 0.4444\nsamples = 3\nvalue = [1, 2]\nclass = 2"] ;
23 -> 24 ;
25 [label="gini = 0.0\nsamples = 1\nvalue = [1, 0]\nclass = 1"] ;
24 -> 25 ;
26 [label="gini = 0.0\nsamples = 2\nvalue = [0, 2]\nclass = 2"] ;
24 -> 26 ;
27 [label="gini = 0.0\nsamples = 8\nvalue = [8, 0]\nclass = 1"] ;
23 -> 27 ;
28 [label="slope peak <= 1.5\ngini = 0.4038\nsamples = 57\nvalue = [16, 41]\nclass = 2"] ;
0 -> 28 [labeldistance=2.5, labelangle=-45, headlabel="False"] ;
29 [label="chest pain type <= 3.5\ngini = 0.4537\nsamples = 23\nvalue = [15, 8]\nclass = 1"] ;
28 -> 29 ;
30 [label="resting blood pressure <= 176.0\ngini = 0.2778\nsamples = 18\nvalue = [15, 3]\nclass = 1"] ;
29 -> 30 ;
31 [label="serum cholestoral <= 172.0\ngini = 0.2076\nsamples = 17\nvalue = [15, 2]\nclass = 1"] ;
30 -> 31 ;
32 [label="gini = 0.0\nsamples = 1\nvalue = [0, 1]\nclass = 2"] ;
31 -> 32 ;
33 [label="serum cholestoral <= 313.5\ngini = 0.1172\nsamples = 16\nvalue = [15, 1]\nclass = 1"] ;
31 -> 33 ;
34 [label="gini = 0.0\nsamples = 14\nvalue = [14, 0]\nclass = 1"] ;
33 -> 34 ;
35 [label="oldpeak <= 0.4\ngini = 0.5\nsamples = 2\nvalue = [1, 1]\nclass = 1"] ;
33 -> 35 ;
36 [label="gini = 0.0\nsamples = 1\nvalue = [0, 1]\nclass = 2"] ;
35 -> 36 ;
37 [label="gini = 0.0\nsamples = 1\nvalue = [1, 0]\nclass = 1"] ;
35 -> 37 ;
38 [label="gini = 0.0\nsamples = 1\nvalue = [0, 1]\nclass = 2"] ;
30 -> 38 ;
39 [label="gini = 0.0\nsamples = 5\nvalue = [0, 5]\nclass = 2"] ;
29 -> 39 ;
40 [label="oldpeak <= 0.4\ngini = 0.0571\nsamples = 34\nvalue = [1, 33]\nclass = 2"] ;
28 -> 40 ;
41 [label="resting blood pressure <= 135.0\ngini = 0.5\nsamples = 2\nvalue = [1, 1]\nclass = 1"] ;
40 -> 41 ;
42 [label="gini = 0.0\nsamples = 1\nvalue = [1, 0]\nclass = 1"] ;
41 -> 42 ;
43 [label="gini = 0.0\nsamples = 1\nvalue = [0, 1]\nclass = 2"] ;
41 -> 43 ;
44 [label="gini = 0.0\nsamples = 32\nvalue = [0, 32]\nclass = 2"] ;
40 -> 44 ;
}