digraph Tree {
node [shape=box] ;
0 [label="chest pain type <= 3.5\ngini = 0.491\nsamples = 134\nvalue = [76, 58]\nclass = 1"] ;
1 [label="age <= 47.5\ngini = 0.3133\nsamples = 72\nvalue = [58, 14]\nclass = 1"] ;
0 -> 1 [labeldistance=2.5, labelangle=45, headlabel="True"] ;
2 [label="gini = 0.0\nsamples = 28\nvalue = [28, 0]\nclass = 1"] ;
1 -> 2 ;
3 [label="sex <= 0.5\ngini = 0.4339\nsamples = 44\nvalue = [30, 14]\nclass = 1"] ;
1 -> 3 ;
4 [label="chest pain type <= 2.5\ngini = 0.1172\nsamples = 16\nvalue = [15, 1]\nclass = 1"] ;
3 -> 4 ;
5 [label="age <= 57.0\ngini = 0.2449\nsamples = 7\nvalue = [6, 1]\nclass = 1"] ;
4 -> 5 ;
6 [label="gini = 0.0\nsamples = 4\nvalue = [4, 0]\nclass = 1"] ;
5 -> 6 ;
7 [label="resting blood pressure <= 138.0\ngini = 0.4444\nsamples = 3\nvalue = [2, 1]\nclass = 1"] ;
5 -> 7 ;
8 [label="gini = 0.0\nsamples = 1\nvalue = [0, 1]\nclass = 2"] ;
7 -> 8 ;
9 [label="gini = 0.0\nsamples = 2\nvalue = [2, 0]\nclass = 1"] ;
7 -> 9 ;
10 [label="gini = 0.0\nsamples = 9\nvalue = [9, 0]\nclass = 1"] ;
4 -> 10 ;
11 [label="age <= 63.0\ngini = 0.4974\nsamples = 28\nvalue = [15, 13]\nclass = 1"] ;
3 -> 11 ;
12 [label="age <= 48.5\ngini = 0.4628\nsamples = 22\nvalue = [14, 8]\nclass = 1"] ;
11 -> 12 ;
13 [label="gini = 0.0\nsamples = 1\nvalue = [0, 1]\nclass = 2"] ;
12 -> 13 ;
14 [label="resting blood pressure <= 185.0\ngini = 0.4444\nsamples = 21\nvalue = [14, 7]\nclass = 1"] ;
12 -> 14 ;
15 [label="resting blood pressure <= 127.0\ngini = 0.42\nsamples = 20\nvalue = [14, 6]\nclass = 1"] ;
14 -> 15 ;
16 [label="age <= 56.5\ngini = 0.4938\nsamples = 9\nvalue = [5, 4]\nclass = 1"] ;
15 -> 16 ;
17 [label="age <= 50.0\ngini = 0.2778\nsamples = 6\nvalue = [5, 1]\nclass = 1"] ;
16 -> 17 ;
18 [label="gini = 0.0\nsamples = 1\nvalue = [0, 1]\nclass = 2"] ;
17 -> 18 ;
19 [label="gini = 0.0\nsamples = 5\nvalue = [5, 0]\nclass = 1"] ;
17 -> 19 ;
20 [label="gini = 0.0\nsamples = 3\nvalue = [0, 3]\nclass = 2"] ;
16 -> 20 ;
21 [label="chest pain type <= 2.5\ngini = 0.2975\nsamples = 11\nvalue = [9, 2]\nclass = 1"] ;
15 -> 21 ;
22 [label="gini = 0.0\nsamples = 5\nvalue = [5, 0]\nclass = 1"] ;
21 -> 22 ;
23 [label="age <= 56.5\ngini = 0.4444\nsamples = 6\nvalue = [4, 2]\nclass = 1"] ;
21 -> 23 ;
24 [label="resting blood pressure <= 129.5\ngini = 0.4444\nsamples = 3\nvalue = [1, 2]\nclass = 2"] ;
23 -> 24 ;
25 [label="gini = 0.0\nsamples = 1\nvalue = [1, 0]\nclass = 1"] ;
24 -> 25 ;
26 [label="gini = 0.0\nsamples = 2\nvalue = [0, 2]\nclass = 2"] ;
24 -> 26 ;
27 [label="gini = 0.0\nsamples = 3\nvalue = [3, 0]\nclass = 1"] ;
23 -> 27 ;
28 [label="gini = 0.0\nsamples = 1\nvalue = [0, 1]\nclass = 2"] ;
14 -> 28 ;
29 [label="chest pain type <= 1.5\ngini = 0.2778\nsamples = 6\nvalue = [1, 5]\nclass = 2"] ;
11 -> 29 ;
30 [label="gini = 0.0\nsamples = 1\nvalue = [1, 0]\nclass = 1"] ;
29 -> 30 ;
31 [label="gini = 0.0\nsamples = 5\nvalue = [0, 5]\nclass = 2"] ;
29 -> 31 ;
32 [label="age <= 63.5\ngini = 0.4121\nsamples = 62\nvalue = [18, 44]\nclass = 2"] ;
0 -> 32 [labeldistance=2.5, labelangle=-45, headlabel="False"] ;
33 [label="resting blood pressure <= 143.0\ngini = 0.3383\nsamples = 51\nvalue = [11, 40]\nclass = 2"] ;
32 -> 33 ;
34 [label="sex <= 0.5\ngini = 0.4178\nsamples = 37\nvalue = [11, 26]\nclass = 2"] ;
33 -> 34 ;
35 [label="age <= 46.5\ngini = 0.375\nsamples = 4\nvalue = [3, 1]\nclass = 1"] ;
34 -> 35 ;
36 [label="gini = 0.0\nsamples = 1\nvalue = [0, 1]\nclass = 2"] ;
35 -> 36 ;
37 [label="gini = 0.0\nsamples = 3\nvalue = [3, 0]\nclass = 1"] ;
35 -> 37 ;
38 [label="resting blood pressure <= 141.0\ngini = 0.3673\nsamples = 33\nvalue = [8, 25]\nclass = 2"] ;
34 -> 38 ;
39 [label="age <= 51.5\ngini = 0.3418\nsamples = 32\nvalue = [7, 25]\nclass = 2"] ;
38 -> 39 ;
40 [label="age <= 44.5\ngini = 0.48\nsamples = 10\nvalue = [4, 6]\nclass = 2"] ;
39 -> 40 ;
41 [label="gini = 0.0\nsamples = 4\nvalue = [0, 4]\nclass = 2"] ;
40 -> 41 ;
42 [label="resting blood pressure <= 131.0\ngini = 0.4444\nsamples = 6\nvalue = [4, 2]\nclass = 1"] ;
40 -> 42 ;
43 [label="gini = 0.0\nsamples = 3\nvalue = [3, 0]\nclass = 1"] ;
42 -> 43 ;
44 [label="age <= 48.5\ngini = 0.4444\nsamples = 3\nvalue = [1, 2]\nclass = 2"] ;
42 -> 44 ;
45 [label="gini = 0.0\nsamples = 1\nvalue = [0, 1]\nclass = 2"] ;
44 -> 45 ;
46 [label="gini = 0.5\nsamples = 2\nvalue = [1, 1]\nclass = 1"] ;
44 -> 46 ;
47 [label="resting blood pressure <= 133.5\ngini = 0.2355\nsamples = 22\nvalue = [3, 19]\nclass = 2"] ;
39 -> 47 ;
48 [label="gini = 0.0\nsamples = 14\nvalue = [0, 14]\nclass = 2"] ;
47 -> 48 ;
49 [label="resting blood pressure <= 136.5\ngini = 0.4688\nsamples = 8\nvalue = [3, 5]\nclass = 2"] ;
47 -> 49 ;
50 [label="gini = 0.0\nsamples = 1\nvalue = [1, 0]\nclass = 1"] ;
49 -> 50 ;
51 [label="age <= 58.0\ngini = 0.4082\nsamples = 7\nvalue = [2, 5]\nclass = 2"] ;
49 -> 51 ;
52 [label="age <= 53.5\ngini = 0.5\nsamples = 4\nvalue = [2, 2]\nclass = 1"] ;
51 -> 52 ;
53 [label="gini = 0.0\nsamples = 1\nvalue = [0, 1]\nclass = 2"] ;
52 -> 53 ;
54 [label="age <= 54.5\ngini = 0.4444\nsamples = 3\nvalue = [2, 1]\nclass = 1"] ;
52 -> 54 ;
55 [label="gini = 0.0\nsamples = 1\nvalue = [1, 0]\nclass = 1"] ;
54 -> 55 ;
56 [label="age <= 56.0\ngini = 0.5\nsamples = 2\nvalue = [1, 1]\nclass = 1"] ;
54 -> 56 ;
57 [label="gini = 0.0\nsamples = 1\nvalue = [0, 1]\nclass = 2"] ;
56 -> 57 ;
58 [label="gini = 0.0\nsamples = 1\nvalue = [1, 0]\nclass = 1"] ;
56 -> 58 ;
59 [label="gini = 0.0\nsamples = 3\nvalue = [0, 3]\nclass = 2"] ;
51 -> 59 ;
60 [label="gini = 0.0\nsamples = 1\nvalue = [1, 0]\nclass = 1"] ;
38 -> 60 ;
61 [label="gini = 0.0\nsamples = 14\nvalue = [0, 14]\nclass = 2"] ;
33 -> 61 ;
62 [label="resting blood pressure <= 116.0\ngini = 0.4628\nsamples = 11\nvalue = [7, 4]\nclass = 1"] ;
32 -> 62 ;
63 [label="resting blood pressure <= 108.0\ngini = 0.4444\nsamples = 3\nvalue = [1, 2]\nclass = 2"] ;
62 -> 63 ;
64 [label="gini = 0.0\nsamples = 1\nvalue = [1, 0]\nclass = 1"] ;
63 -> 64 ;
65 [label="gini = 0.0\nsamples = 2\nvalue = [0, 2]\nclass = 2"] ;
63 -> 65 ;
66 [label="resting blood pressure <= 137.5\ngini = 0.375\nsamples = 8\nvalue = [6, 2]\nclass = 1"] ;
62 -> 66 ;
67 [label="gini = 0.0\nsamples = 4\nvalue = [4, 0]\nclass = 1"] ;
66 -> 67 ;
68 [label="resting blood pressure <= 155.0\ngini = 0.5\nsamples = 4\nvalue = [2, 2]\nclass = 1"] ;
66 -> 68 ;
69 [label="gini = 0.0\nsamples = 2\nvalue = [0, 2]\nclass = 2"] ;
68 -> 69 ;
70 [label="gini = 0.0\nsamples = 2\nvalue = [2, 0]\nclass = 1"] ;
68 -> 70 ;
}